0.4 0.8
4 26
186.985 686.614 -59.5003 488.921 -198.447 -736.243 613.371 31.327 -246.208 -732.03 -334.73 308.042 1961.51 -130.356 149.177 220.568 1934.89 2172.61 236.028 -1133.99 -205.066 375.316 -157.11 -959.408 -1000.62 663.869 
2124.53 4421.44 393.482 -3681.02 -3586.49 2192.5 -1044.87 -4200.86 3750.79 -2491.16 3611.23 -150.303 -2508.28 1567.25 -2568.5 923.428 785.703 -4624.25 634.993 3514.28 -2837.93 -1181.63 -120.551 1695.84 -772.861 158.033 
-7.1156 -2021.29 -945.531 -2406.04 -702.775 4267.44 1906.06 1600.68 1515.97 2756.09 -859.767 -1049.52 17.0157 -374.882 1196.72 640.092 1033.24 702.283 -302.327 -1734.23 -1491.08 1422.24 436.816 1562.45 1448.8 465.14 
-20.5706 -2392.34 -3173.8 -151.22 -1603.51 -2515.42 -2294.81 -1188.13 3618.02 6394.53 3554.7 -2156.44 -2322.44 3591.86 1510.45 160.528 -302.331 672.721 -2115.01 -2007.22 8801.7 -1335.11 -5327.55 -683.836 4395.14 2095.33 

3 4
3.39571 -7.35174 -8.00502 9.80028 
-3.9906 9.9751 -1.60449 -0.995081 
-3.52322 -5.36845 8.04357 -9.73515 

