0.4 0.8
4 26
0.319823 1.22904 0.149973 0.986695 -0.248762 -1.06772 1.02408 0.0945886 -0.263697 -1.07924 -0.492871 0.544837 3.23693 -0.0610275 0.373583 0.360949 3.12267 3.57911 0.480525 -1.63764 -0.166448 0.661712 -0.083942 -1.44726 -1.44661 1.10778 
3.5366 7.08116 0.712692 -5.96429 -5.7427 3.61312 -1.58099 -6.6561 6.01307 -3.9085 5.89783 -0.163412 -3.9303 2.52359 -4.1007 1.61787 1.31726 -7.25296 1.0479 5.64133 -4.56177 -1.79673 -0.231429 2.81265 -1.15257 0.41753 
0.0589599 -3.08252 -1.44856 -3.80337 -1.05582 6.86953 3.21631 2.63933 2.48232 4.51184 -1.27289 -1.60413 0.140208 -0.48587 2.03231 1.13607 1.73979 1.25089 -0.438359 -2.75397 -2.24832 2.42827 0.867721 2.5961 2.38752 0.812567 
0.0594288 -3.76353 -5.03556 -0.176225 -2.41919 -3.91555 -3.67623 -1.90536 5.78932 10.2894 5.68571 -3.4043 -3.75647 5.75837 2.41014 0.307563 -0.483389 1.03536 -3.31348 -3.1584 14.1315 -2.13082 -8.53471 -1.0564 7.04654 3.32631 

3 4
2.79204 -6.36916 -6.29562 8.48223 
-2.91845 8.98002 -2.14786 -1.01767 
-2.80099 -3.11509 6.74052 -8.49334 

